digraph Tree {
node [shape=box, style="filled, rounded", color="black", fontname=helvetica] ;
edge [fontname=helvetica] ;
0 [label="Number of VCAL Enrollments <= -0.485\nentropy = 1.512\nsamples = 617\nvalue = [6, 327, 171, 113]", fillcolor="#47e53959"] ;
1 [label="VCE Percentage of Sastisfactory Completion <= 0.303\nentropy = 1.349\nsamples = 248\nvalue = [6, 68, 155, 19]", fillcolor="#399de57b"] ;
0 -> 1 [labeldistance=2.5, labelangle=45, headlabel="True"] ;
2 [label="Number of VET Enrollments <= -0.814\nentropy = 1.208\nsamples = 75\nvalue = [0, 44, 27, 4]", fillcolor="#47e5395a"] ;
1 -> 2 ;
3 [label="Percentage of VCE students applying for tertiary places <= 0.33\nentropy = 0.722\nsamples = 20\nvalue = [0, 4, 16, 0]", fillcolor="#399de5bf"] ;
2 -> 3 ;
4 [label="entropy = 0.0\nsamples = 13\nvalue = [0, 0, 13, 0]", fillcolor="#399de5ff"] ;
3 -> 4 ;
5 [label="Percentage of VCE students applying for tertiary places <= 0.84\nentropy = 0.985\nsamples = 7\nvalue = [0, 4, 3, 0]", fillcolor="#47e53940"] ;
3 -> 5 ;
6 [label="entropy = 0.0\nsamples = 4\nvalue = [0, 4, 0, 0]", fillcolor="#47e539ff"] ;
5 -> 6 ;
7 [label="entropy = 0.0\nsamples = 3\nvalue = [0, 0, 3, 0]", fillcolor="#399de5ff"] ;
5 -> 7 ;
8 [label="Number of VCE Enrollments <= 0.682\nentropy = 1.074\nsamples = 55\nvalue = [0, 40, 11, 4]", fillcolor="#47e539a8"] ;
2 -> 8 ;
9 [label="Percentage of VCE students applying for tertiary places <= 0.745\nentropy = 1.283\nsamples = 39\nvalue = [0, 24, 11, 4]", fillcolor="#47e53976"] ;
8 -> 9 ;
10 [label="Number of VET Enrollments <= -0.694\nentropy = 0.85\nsamples = 29\nvalue = [0, 21, 8, 0]", fillcolor="#47e5399e"] ;
9 -> 10 ;
11 [label="entropy = 0.0\nsamples = 8\nvalue = [0, 8, 0, 0]", fillcolor="#47e539ff"] ;
10 -> 11 ;
12 [label=" Number of VET Subjects Offered <= -0.039\nentropy = 0.959\nsamples = 21\nvalue = [0, 13, 8, 0]", fillcolor="#47e53962"] ;
10 -> 12 ;
13 [label="Percentage of study scores of 40 and over <= -0.386\nentropy = 0.998\nsamples = 17\nvalue = [0, 9, 8, 0]", fillcolor="#47e5391c"] ;
12 -> 13 ;
14 [label="Number of VCAL Enrollments <= -0.571\nentropy = 0.592\nsamples = 7\nvalue = [0, 6, 1, 0]", fillcolor="#47e539d4"] ;
13 -> 14 ;
15 [label="entropy = 0.0\nsamples = 6\nvalue = [0, 6, 0, 0]", fillcolor="#47e539ff"] ;
14 -> 15 ;
16 [label="entropy = 0.0\nsamples = 1\nvalue = [0, 0, 1, 0]", fillcolor="#399de5ff"] ;
14 -> 16 ;
17 [label=" Number of VET Subjects Offered <= -1.057\nentropy = 0.881\nsamples = 10\nvalue = [0, 3, 7, 0]", fillcolor="#399de592"] ;
13 -> 17 ;
18 [label="Number of students awarded the VCE (Baccalaureate) <= -0.485\nentropy = 0.811\nsamples = 4\nvalue = [0, 3, 1, 0]", fillcolor="#47e539aa"] ;
17 -> 18 ;
19 [label="entropy = 0.0\nsamples = 1\nvalue = [0, 0, 1, 0]", fillcolor="#399de5ff"] ;
18 -> 19 ;
20 [label="entropy = 0.0\nsamples = 3\nvalue = [0, 3, 0, 0]", fillcolor="#47e539ff"] ;
18 -> 20 ;
21 [label="entropy = 0.0\nsamples = 6\nvalue = [0, 0, 6, 0]", fillcolor="#399de5ff"] ;
17 -> 21 ;
22 [label="entropy = 0.0\nsamples = 4\nvalue = [0, 4, 0, 0]", fillcolor="#47e539ff"] ;
12 -> 22 ;
23 [label="Number of students awarded the VCE (Baccalaureate) <= 0.255\nentropy = 1.571\nsamples = 10\nvalue = [0, 3, 3, 4]", fillcolor="#d739e524"] ;
9 -> 23 ;
24 [label="Median VCE study score <= 0.149\nentropy = 0.985\nsamples = 7\nvalue = [0, 3, 0, 4]", fillcolor="#d739e540"] ;
23 -> 24 ;
25 [label="entropy = 0.0\nsamples = 3\nvalue = [0, 3, 0, 0]", fillcolor="#47e539ff"] ;
24 -> 25 ;
26 [label="entropy = 0.0\nsamples = 4\nvalue = [0, 0, 0, 4]", fillcolor="#d739e5ff"] ;
24 -> 26 ;
27 [label="entropy = 0.0\nsamples = 3\nvalue = [0, 0, 3, 0]", fillcolor="#399de5ff"] ;
23 -> 27 ;
28 [label="entropy = 0.0\nsamples = 16\nvalue = [0, 16, 0, 0]", fillcolor="#47e539ff"] ;
8 -> 28 ;
29 [label="Number of VCE Enrollments <= 1.46\nentropy = 1.191\nsamples = 173\nvalue = [6, 24, 128, 15]", fillcolor="#399de5b2"] ;
1 -> 29 ;
30 [label="Number of students awarded the VCE (Baccalaureate) <= -0.203\nentropy = 0.944\nsamples = 154\nvalue = [0, 17, 122, 15]", fillcolor="#399de5c3"] ;
29 -> 30 ;
31 [label="Number of VET Enrollments <= -0.485\nentropy = 0.744\nsamples = 71\nvalue = [0, 15, 56, 0]", fillcolor="#399de5bb"] ;
30 -> 31 ;
32 [label="Number of VET Enrollments <= -0.864\nentropy = 0.838\nsamples = 56\nvalue = [0, 15, 41, 0]", fillcolor="#399de5a2"] ;
31 -> 32 ;
33 [label="Percentage of VCE students applying for tertiary places <= -0.117\nentropy = 0.439\nsamples = 22\nvalue = [0, 2, 20, 0]", fillcolor="#399de5e6"] ;
32 -> 33 ;
34 [label="Percentage of VCE students applying for tertiary places <= -0.245\nentropy = 0.863\nsamples = 7\nvalue = [0, 2, 5, 0]", fillcolor="#399de599"] ;
33 -> 34 ;
35 [label=" Number of VET Subjects Offered <= -1.542\nentropy = 0.65\nsamples = 6\nvalue = [0, 1, 5, 0]", fillcolor="#399de5cc"] ;
34 -> 35 ;
36 [label="Number of VCE Enrollments <= -1.138\nentropy = 1.0\nsamples = 2\nvalue = [0, 1, 1, 0]", fillcolor="#47e53900"] ;
35 -> 36 ;
37 [label="entropy = 0.0\nsamples = 1\nvalue = [0, 0, 1, 0]", fillcolor="#399de5ff"] ;
36 -> 37 ;
38 [label="entropy = 0.0\nsamples = 1\nvalue = [0, 1, 0, 0]", fillcolor="#47e539ff"] ;
36 -> 38 ;
39 [label="entropy = 0.0\nsamples = 4\nvalue = [0, 0, 4, 0]", fillcolor="#399de5ff"] ;
35 -> 39 ;
40 [label="entropy = 0.0\nsamples = 1\nvalue = [0, 1, 0, 0]", fillcolor="#47e539ff"] ;
34 -> 40 ;
41 [label="entropy = 0.0\nsamples = 15\nvalue = [0, 0, 15, 0]", fillcolor="#399de5ff"] ;
33 -> 41 ;
42 [label="Number of VCE Enrollments <= -1.145\nentropy = 0.96\nsamples = 34\nvalue = [0, 13, 21, 0]", fillcolor="#399de561"] ;
32 -> 42 ;
43 [label="Percentage of study scores of 40 and over <= 3.27\nentropy = 0.722\nsamples = 5\nvalue = [0, 4, 1, 0]", fillcolor="#47e539bf"] ;
42 -> 43 ;
44 [label="entropy = 0.0\nsamples = 4\nvalue = [0, 4, 0, 0]", fillcolor="#47e539ff"] ;
43 -> 44 ;
45 [label="entropy = 0.0\nsamples = 1\nvalue = [0, 0, 1, 0]", fillcolor="#399de5ff"] ;
43 -> 45 ;
46 [label="Percentage of VCE students applying for tertiary places <= -0.437\nentropy = 0.894\nsamples = 29\nvalue = [0, 9, 20, 0]", fillcolor="#399de58c"] ;
42 -> 46 ;
47 [label="entropy = 0.0\nsamples = 8\nvalue = [0, 0, 8, 0]", fillcolor="#399de5ff"] ;
46 -> 47 ;
48 [label="Number of VET Enrollments <= -0.661\nentropy = 0.985\nsamples = 21\nvalue = [0, 9, 12, 0]", fillcolor="#399de540"] ;
46 -> 48 ;
49 [label="Number of Unit 3/4 VCE Stubjects Offered <= -1.554\nentropy = 0.985\nsamples = 14\nvalue = [0, 8, 6, 0]", fillcolor="#47e53940"] ;
48 -> 49 ;
50 [label="entropy = 0.0\nsamples = 2\nvalue = [0, 0, 2, 0]", fillcolor="#399de5ff"] ;
49 -> 50 ;
51 [label="VET Percentage of Sastisfactory Completion <= 0.575\nentropy = 0.918\nsamples = 12\nvalue = [0, 8, 4, 0]", fillcolor="#47e5397f"] ;
49 -> 51 ;
52 [label="entropy = 0.0\nsamples = 5\nvalue = [0, 5, 0, 0]", fillcolor="#47e539ff"] ;
51 -> 52 ;
53 [label="Number of students awarded the VCE (Baccalaureate) <= -0.344\nentropy = 0.985\nsamples = 7\nvalue = [0, 3, 4, 0]", fillcolor="#399de540"] ;
51 -> 53 ;
54 [label="entropy = 0.811\nsamples = 4\nvalue = [0, 3, 1, 0]", fillcolor="#47e539aa"] ;
53 -> 54 ;
55 [label="entropy = 0.0\nsamples = 3\nvalue = [0, 0, 3, 0]", fillcolor="#399de5ff"] ;
53 -> 55 ;
56 [label="Number of VET Enrollments <= -0.518\nentropy = 0.592\nsamples = 7\nvalue = [0, 1, 6, 0]", fillcolor="#399de5d4"] ;
48 -> 56 ;
57 [label="entropy = 0.0\nsamples = 6\nvalue = [0, 0, 6, 0]", fillcolor="#399de5ff"] ;
56 -> 57 ;
58 [label="entropy = 0.0\nsamples = 1\nvalue = [0, 1, 0, 0]", fillcolor="#47e539ff"] ;
56 -> 58 ;
59 [label="entropy = 0.0\nsamples = 15\nvalue = [0, 0, 15, 0]", fillcolor="#399de5ff"] ;
31 -> 59 ;
60 [label="Number of VCAL Enrollments <= -0.559\nentropy = 0.838\nsamples = 83\nvalue = [0, 2, 66, 15]", fillcolor="#399de5bf"] ;
30 -> 60 ;
61 [label="Number of Unit 3/4 VCE Stubjects Offered <= 0.654\nentropy = 0.689\nsamples = 77\nvalue = [0, 2, 66, 9]", fillcolor="#399de5d6"] ;
60 -> 61 ;
62 [label="Percentage of VCE students applying for tertiary places <= 0.872\nentropy = 0.544\nsamples = 72\nvalue = [0, 0, 63, 9]", fillcolor="#399de5db"] ;
61 -> 62 ;
63 [label="entropy = 0.0\nsamples = 29\nvalue = [0, 0, 29, 0]", fillcolor="#399de5ff"] ;
62 -> 63 ;
64 [label="Number of VCE Enrollments <= -0.131\nentropy = 0.74\nsamples = 43\nvalue = [0, 0, 34, 9]", fillcolor="#399de5bb"] ;
62 -> 64 ;
65 [label="Number of Unit 3/4 VCE Stubjects Offered <= 0.039\nentropy = 0.297\nsamples = 19\nvalue = [0, 0, 18, 1]", fillcolor="#399de5f1"] ;
64 -> 65 ;
66 [label="entropy = 0.0\nsamples = 17\nvalue = [0, 0, 17, 0]", fillcolor="#399de5ff"] ;
65 -> 66 ;
67 [label="Median VCE study score <= 1.049\nentropy = 1.0\nsamples = 2\nvalue = [0, 0, 1, 1]", fillcolor="#399de500"] ;
65 -> 67 ;
68 [label="entropy = 0.0\nsamples = 1\nvalue = [0, 0, 0, 1]", fillcolor="#d739e5ff"] ;
67 -> 68 ;
69 [label="entropy = 0.0\nsamples = 1\nvalue = [0, 0, 1, 0]", fillcolor="#399de5ff"] ;
67 -> 69 ;
70 [label="Percentage of study scores of 40 and over <= 1.321\nentropy = 0.918\nsamples = 24\nvalue = [0, 0, 16, 8]", fillcolor="#399de57f"] ;
64 -> 70 ;
71 [label="IB Offered <= 2.716\nentropy = 0.722\nsamples = 5\nvalue = [0, 0, 1, 4]", fillcolor="#d739e5bf"] ;
70 -> 71 ;
72 [label="entropy = 0.0\nsamples = 4\nvalue = [0, 0, 0, 4]", fillcolor="#d739e5ff"] ;
71 -> 72 ;
73 [label="entropy = 0.0\nsamples = 1\nvalue = [0, 0, 1, 0]", fillcolor="#399de5ff"] ;
71 -> 73 ;
74 [label="Number of VET Enrollments <= -0.853\nentropy = 0.742\nsamples = 19\nvalue = [0, 0, 15, 4]", fillcolor="#399de5bb"] ;
70 -> 74 ;
75 [label="Number of Unit 3/4 VCE Stubjects Offered <= -0.106\nentropy = 0.991\nsamples = 9\nvalue = [0, 0, 5, 4]", fillcolor="#399de533"] ;
74 -> 75 ;
76 [label="Number of students awarded the VCE (Baccalaureate) <= 1.029\nentropy = 0.65\nsamples = 6\nvalue = [0, 0, 5, 1]", fillcolor="#399de5cc"] ;
75 -> 76 ;
77 [label="entropy = 0.0\nsamples = 1\nvalue = [0, 0, 0, 1]", fillcolor="#d739e5ff"] ;
76 -> 77 ;
78 [label="entropy = 0.0\nsamples = 5\nvalue = [0, 0, 5, 0]", fillcolor="#399de5ff"] ;
76 -> 78 ;
79 [label="entropy = 0.0\nsamples = 3\nvalue = [0, 0, 0, 3]", fillcolor="#d739e5ff"] ;
75 -> 79 ;
80 [label="entropy = 0.0\nsamples = 10\nvalue = [0, 0, 10, 0]", fillcolor="#399de5ff"] ;
74 -> 80 ;
81 [label="Number of VET Enrollments <= -0.299\nentropy = 0.971\nsamples = 5\nvalue = [0, 2, 3, 0]", fillcolor="#399de555"] ;
61 -> 81 ;
82 [label="entropy = 0.0\nsamples = 2\nvalue = [0, 2, 0, 0]", fillcolor="#47e539ff"] ;
81 -> 82 ;
83 [label="entropy = 0.0\nsamples = 3\nvalue = [0, 0, 3, 0]", fillcolor="#399de5ff"] ;
81 -> 83 ;
84 [label="entropy = 0.0\nsamples = 6\nvalue = [0, 0, 0, 6]", fillcolor="#d739e5ff"] ;
60 -> 84 ;
85 [label="Percentage of study scores of 40 and over <= 2.143\nentropy = 1.581\nsamples = 19\nvalue = [6, 7, 6, 0]", fillcolor="#47e53914"] ;
29 -> 85 ;
86 [label="Median VCE study score <= 1.35\nentropy = 0.946\nsamples = 11\nvalue = [4, 7, 0, 0]", fillcolor="#47e5396d"] ;
85 -> 86 ;
87 [label="entropy = 0.0\nsamples = 6\nvalue = [0, 6, 0, 0]", fillcolor="#47e539ff"] ;
86 -> 87 ;
88 [label="Percentage of VCE students applying for tertiary places <= 0.84\nentropy = 0.722\nsamples = 5\nvalue = [4, 1, 0, 0]", fillcolor="#e58139bf"] ;
86 -> 88 ;
89 [label="entropy = 0.0\nsamples = 1\nvalue = [0, 1, 0, 0]", fillcolor="#47e539ff"] ;
88 -> 89 ;
90 [label="entropy = 0.0\nsamples = 4\nvalue = [4, 0, 0, 0]", fillcolor="#e58139ff"] ;
88 -> 90 ;
91 [label=" Number of VET Subjects Offered <= -0.378\nentropy = 0.811\nsamples = 8\nvalue = [2, 0, 6, 0]", fillcolor="#399de5aa"] ;
85 -> 91 ;
92 [label="entropy = 0.0\nsamples = 6\nvalue = [0, 0, 6, 0]", fillcolor="#399de5ff"] ;
91 -> 92 ;
93 [label="entropy = 0.0\nsamples = 2\nvalue = [2, 0, 0, 0]", fillcolor="#e58139ff"] ;
91 -> 93 ;
94 [label="Median VCE study score <= -0.452\nentropy = 1.057\nsamples = 369\nvalue = [0, 259, 16, 94]", fillcolor="#47e53999"] ;
0 -> 94 [labeldistance=2.5, labelangle=-45, headlabel="False"] ;
95 [label="VCAL Percentage of Sastisfactory Completion <= 0.896\nentropy = 0.381\nsamples = 180\nvalue = [0, 168, 1, 11]", fillcolor="#47e539ed"] ;
94 -> 95 ;
96 [label="VET Percentage of Sastisfactory Completion <= 0.252\nentropy = 0.14\nsamples = 152\nvalue = [0, 149, 0, 3]", fillcolor="#47e539fa"] ;
95 -> 96 ;
97 [label="entropy = 0.0\nsamples = 107\nvalue = [0, 107, 0, 0]", fillcolor="#47e539ff"] ;
96 -> 97 ;
98 [label="Percentage of study scores of 40 and over <= -0.662\nentropy = 0.353\nsamples = 45\nvalue = [0, 42, 0, 3]", fillcolor="#47e539ed"] ;
96 -> 98 ;
99 [label="entropy = 0.0\nsamples = 26\nvalue = [0, 26, 0, 0]", fillcolor="#47e539ff"] ;
98 -> 99 ;
100 [label="VCE Percentage of Sastisfactory Completion <= -0.006\nentropy = 0.629\nsamples = 19\nvalue = [0, 16, 0, 3]", fillcolor="#47e539cf"] ;
98 -> 100 ;
101 [label="entropy = 0.0\nsamples = 9\nvalue = [0, 9, 0, 0]", fillcolor="#47e539ff"] ;
100 -> 101 ;
102 [label="Percentage of study scores of 40 and over <= -0.635\nentropy = 0.881\nsamples = 10\nvalue = [0, 7, 0, 3]", fillcolor="#47e53992"] ;
100 -> 102 ;
103 [label="entropy = 0.0\nsamples = 1\nvalue = [0, 0, 0, 1]", fillcolor="#d739e5ff"] ;
102 -> 103 ;
104 [label="Percentage of VCE students applying for tertiary places <= -0.596\nentropy = 0.764\nsamples = 9\nvalue = [0, 7, 0, 2]", fillcolor="#47e539b6"] ;
102 -> 104 ;
105 [label="entropy = 0.0\nsamples = 3\nvalue = [0, 3, 0, 0]", fillcolor="#47e539ff"] ;
104 -> 105 ;
106 [label="Percentage of VCE students applying for tertiary places <= 0.074\nentropy = 0.918\nsamples = 6\nvalue = [0, 4, 0, 2]", fillcolor="#47e5397f"] ;
104 -> 106 ;
107 [label="VCAL Percentage of Sastisfactory Completion <= 0.872\nentropy = 0.918\nsamples = 3\nvalue = [0, 1, 0, 2]", fillcolor="#d739e57f"] ;
106 -> 107 ;
108 [label="entropy = 0.0\nsamples = 2\nvalue = [0, 0, 0, 2]", fillcolor="#d739e5ff"] ;
107 -> 108 ;
109 [label="entropy = 0.0\nsamples = 1\nvalue = [0, 1, 0, 0]", fillcolor="#47e539ff"] ;
107 -> 109 ;
110 [label="entropy = 0.0\nsamples = 3\nvalue = [0, 3, 0, 0]", fillcolor="#47e539ff"] ;
106 -> 110 ;
111 [label="VCE Percentage of Sastisfactory Completion <= 0.071\nentropy = 1.068\nsamples = 28\nvalue = [0, 19, 1, 8]", fillcolor="#47e5398c"] ;
95 -> 111 ;
112 [label="Number of VET Enrollments <= 0.178\nentropy = 0.323\nsamples = 17\nvalue = [0, 16, 0, 1]", fillcolor="#47e539ef"] ;
111 -> 112 ;
113 [label="entropy = 0.0\nsamples = 14\nvalue = [0, 14, 0, 0]", fillcolor="#47e539ff"] ;
112 -> 113 ;
114 [label="Percentage of VCE students applying for tertiary places <= -0.533\nentropy = 0.918\nsamples = 3\nvalue = [0, 2, 0, 1]", fillcolor="#47e5397f"] ;
112 -> 114 ;
115 [label="entropy = 0.0\nsamples = 2\nvalue = [0, 2, 0, 0]", fillcolor="#47e539ff"] ;
114 -> 115 ;
116 [label="entropy = 0.0\nsamples = 1\nvalue = [0, 0, 0, 1]", fillcolor="#d739e5ff"] ;
114 -> 116 ;
117 [label="VCAL Percentage of Sastisfactory Completion <= 0.92\nentropy = 1.241\nsamples = 11\nvalue = [0, 3, 1, 7]", fillcolor="#d739e580"] ;
111 -> 117 ;
118 [label="Number of Unit 3/4 VCE Stubjects Offered <= -0.721\nentropy = 1.459\nsamples = 6\nvalue = [0, 3, 1, 2]", fillcolor="#47e53940"] ;
117 -> 118 ;
119 [label="entropy = 0.0\nsamples = 1\nvalue = [0, 0, 1, 0]", fillcolor="#399de5ff"] ;
118 -> 119 ;
120 [label="VET Percentage of Sastisfactory Completion <= 0.454\nentropy = 0.971\nsamples = 5\nvalue = [0, 3, 0, 2]", fillcolor="#47e53955"] ;
118 -> 120 ;
121 [label="Median VCE study score <= -1.202\nentropy = 0.918\nsamples = 3\nvalue = [0, 1, 0, 2]", fillcolor="#d739e57f"] ;
120 -> 121 ;
122 [label="entropy = 0.0\nsamples = 1\nvalue = [0, 1, 0, 0]", fillcolor="#47e539ff"] ;
121 -> 122 ;
123 [label="entropy = 0.0\nsamples = 2\nvalue = [0, 0, 0, 2]", fillcolor="#d739e5ff"] ;
121 -> 123 ;
124 [label="entropy = 0.0\nsamples = 2\nvalue = [0, 2, 0, 0]", fillcolor="#47e539ff"] ;
120 -> 124 ;
125 [label="entropy = 0.0\nsamples = 5\nvalue = [0, 0, 0, 5]", fillcolor="#d739e5ff"] ;
117 -> 125 ;
126 [label="VCAL Percentage of Sastisfactory Completion <= 0.92\nentropy = 1.319\nsamples = 189\nvalue = [0, 91, 15, 83]", fillcolor="#47e53913"] ;
94 -> 126 ;
127 [label="Number of VCE Enrollments <= -0.61\nentropy = 1.146\nsamples = 123\nvalue = [0, 79, 6, 38]", fillcolor="#47e5397b"] ;
126 -> 127 ;
128 [label="Number of VET Enrollments <= -0.688\nentropy = 0.77\nsamples = 30\nvalue = [0, 25, 4, 1]", fillcolor="#47e539ce"] ;
127 -> 128 ;
129 [label="Number of VCE Enrollments <= -0.954\nentropy = 0.985\nsamples = 7\nvalue = [0, 3, 4, 0]", fillcolor="#399de540"] ;
128 -> 129 ;
130 [label="entropy = 0.0\nsamples = 3\nvalue = [0, 3, 0, 0]", fillcolor="#47e539ff"] ;
129 -> 130 ;
131 [label="entropy = 0.0\nsamples = 4\nvalue = [0, 0, 4, 0]", fillcolor="#399de5ff"] ;
129 -> 131 ;
132 [label="Percentage of VCE students applying for tertiary places <= -1.267\nentropy = 0.258\nsamples = 23\nvalue = [0, 22, 0, 1]", fillcolor="#47e539f3"] ;
128 -> 132 ;
133 [label="entropy = 0.0\nsamples = 1\nvalue = [0, 0, 0, 1]", fillcolor="#d739e5ff"] ;
132 -> 133 ;
134 [label="entropy = 0.0\nsamples = 22\nvalue = [0, 22, 0, 0]", fillcolor="#47e539ff"] ;
132 -> 134 ;
135 [label="VCE Percentage of Sastisfactory Completion <= 0.303\nentropy = 1.104\nsamples = 93\nvalue = [0, 54, 2, 37]", fillcolor="#47e5394d"] ;
127 -> 135 ;
136 [label="Number of Unit 3/4 VCE Stubjects Offered <= -0.178\nentropy = 0.892\nsamples = 68\nvalue = [0, 47, 0, 21]", fillcolor="#47e5398d"] ;
135 -> 136 ;
137 [label="VCE Percentage of Sastisfactory Completion <= -0.624\nentropy = 0.592\nsamples = 7\nvalue = [0, 1, 0, 6]", fillcolor="#d739e5d4"] ;
136 -> 137 ;
138 [label="entropy = 0.0\nsamples = 1\nvalue = [0, 1, 0, 0]", fillcolor="#47e539ff"] ;
137 -> 138 ;
139 [label="entropy = 0.0\nsamples = 6\nvalue = [0, 0, 0, 6]", fillcolor="#d739e5ff"] ;
137 -> 139 ;
140 [label="VCAL Percentage of Sastisfactory Completion <= 0.728\nentropy = 0.805\nsamples = 61\nvalue = [0, 46, 0, 15]", fillcolor="#47e539ac"] ;
136 -> 140 ;
141 [label="Percentage of VCE students applying for tertiary places <= 0.872\nentropy = 0.229\nsamples = 27\nvalue = [0, 26, 0, 1]", fillcolor="#47e539f5"] ;
140 -> 141 ;
142 [label="entropy = 0.0\nsamples = 24\nvalue = [0, 24, 0, 0]", fillcolor="#47e539ff"] ;
141 -> 142 ;
143 [label="Percentage of study scores of 40 and over <= -0.462\nentropy = 0.918\nsamples = 3\nvalue = [0, 2, 0, 1]", fillcolor="#47e5397f"] ;
141 -> 143 ;
144 [label="entropy = 0.0\nsamples = 2\nvalue = [0, 2, 0, 0]", fillcolor="#47e539ff"] ;
143 -> 144 ;
145 [label="entropy = 0.0\nsamples = 1\nvalue = [0, 0, 0, 1]", fillcolor="#d739e5ff"] ;
143 -> 145 ;
146 [label="Number of VET Enrollments <= 0.809\nentropy = 0.977\nsamples = 34\nvalue = [0, 20, 0, 14]", fillcolor="#47e5394d"] ;
140 -> 146 ;
147 [label="VCAL Percentage of Sastisfactory Completion <= 0.848\nentropy = 0.773\nsamples = 22\nvalue = [0, 17, 0, 5]", fillcolor="#47e539b4"] ;
146 -> 147 ;
148 [label="Number of students awarded the VCE (Baccalaureate) <= 0.043\nentropy = 0.337\nsamples = 16\nvalue = [0, 15, 0, 1]", fillcolor="#47e539ee"] ;
147 -> 148 ;
149 [label="entropy = 0.0\nsamples = 14\nvalue = [0, 14, 0, 0]", fillcolor="#47e539ff"] ;
148 -> 149 ;
150 [label="Number of VCE Enrollments <= 1.198\nentropy = 1.0\nsamples = 2\nvalue = [0, 1, 0, 1]", fillcolor="#47e53900"] ;
148 -> 150 ;
151 [label="entropy = 0.0\nsamples = 1\nvalue = [0, 0, 0, 1]", fillcolor="#d739e5ff"] ;
150 -> 151 ;
152 [label="entropy = 0.0\nsamples = 1\nvalue = [0, 1, 0, 0]", fillcolor="#47e539ff"] ;
150 -> 152 ;
153 [label="Median VCE study score <= 0.149\nentropy = 0.918\nsamples = 6\nvalue = [0, 2, 0, 4]", fillcolor="#d739e57f"] ;
147 -> 153 ;
154 [label="entropy = 0.0\nsamples = 2\nvalue = [0, 2, 0, 0]", fillcolor="#47e539ff"] ;
153 -> 154 ;
155 [label="entropy = 0.0\nsamples = 4\nvalue = [0, 0, 0, 4]", fillcolor="#d739e5ff"] ;
153 -> 155 ;
156 [label="Percentage of VCE students applying for tertiary places <= 0.649\nentropy = 0.811\nsamples = 12\nvalue = [0, 3, 0, 9]", fillcolor="#d739e5aa"] ;
146 -> 156 ;
157 [label="entropy = 0.0\nsamples = 8\nvalue = [0, 0, 0, 8]", fillcolor="#d739e5ff"] ;
156 -> 157 ;
158 [label="VCAL Percentage of Sastisfactory Completion <= 0.896\nentropy = 0.811\nsamples = 4\nvalue = [0, 3, 0, 1]", fillcolor="#47e539aa"] ;
156 -> 158 ;
159 [label="entropy = 0.0\nsamples = 3\nvalue = [0, 3, 0, 0]", fillcolor="#47e539ff"] ;
158 -> 159 ;
160 [label="entropy = 0.0\nsamples = 1\nvalue = [0, 0, 0, 1]", fillcolor="#d739e5ff"] ;
158 -> 160 ;
161 [label="Number of VCAL Enrollments <= 0.923\nentropy = 1.218\nsamples = 25\nvalue = [0, 7, 2, 16]", fillcolor="#d739e580"] ;
135 -> 161 ;
162 [label="Number of VET Enrollments <= 0.047\nentropy = 1.023\nsamples = 21\nvalue = [0, 3, 2, 16]", fillcolor="#d739e5b8"] ;
161 -> 162 ;
163 [label="Number of VCAL Enrollments <= -0.065\nentropy = 1.557\nsamples = 7\nvalue = [0, 3, 2, 2]", fillcolor="#47e53933"] ;
162 -> 163 ;
164 [label="Percentage of study scores of 40 and over <= -0.213\nentropy = 1.0\nsamples = 4\nvalue = [0, 0, 2, 2]", fillcolor="#399de500"] ;
163 -> 164 ;
165 [label="entropy = 0.0\nsamples = 2\nvalue = [0, 0, 0, 2]", fillcolor="#d739e5ff"] ;
164 -> 165 ;
166 [label="entropy = 0.0\nsamples = 2\nvalue = [0, 0, 2, 0]", fillcolor="#399de5ff"] ;
164 -> 166 ;
167 [label="entropy = 0.0\nsamples = 3\nvalue = [0, 3, 0, 0]", fillcolor="#47e539ff"] ;
163 -> 167 ;
168 [label="entropy = 0.0\nsamples = 14\nvalue = [0, 0, 0, 14]", fillcolor="#d739e5ff"] ;
162 -> 168 ;
169 [label="entropy = 0.0\nsamples = 4\nvalue = [0, 4, 0, 0]", fillcolor="#47e539ff"] ;
161 -> 169 ;
170 [label="Number of VCAL Enrollments <= -0.114\nentropy = 1.216\nsamples = 66\nvalue = [0, 12, 9, 45]", fillcolor="#d739e59c"] ;
126 -> 170 ;
171 [label="Percentage of VCE students applying for tertiary places <= -0.149\nentropy = 1.436\nsamples = 30\nvalue = [0, 5, 9, 16]", fillcolor="#d739e555"] ;
170 -> 171 ;
172 [label="Number of VCE Enrollments <= -0.965\nentropy = 0.985\nsamples = 7\nvalue = [0, 4, 3, 0]", fillcolor="#47e53940"] ;
171 -> 172 ;
173 [label="entropy = 0.0\nsamples = 3\nvalue = [0, 3, 0, 0]", fillcolor="#47e539ff"] ;
172 -> 173 ;
174 [label="Number of Unit 3/4 VCE Stubjects Offered <= 0.51\nentropy = 0.811\nsamples = 4\nvalue = [0, 1, 3, 0]", fillcolor="#399de5aa"] ;
172 -> 174 ;
175 [label="entropy = 0.0\nsamples = 3\nvalue = [0, 0, 3, 0]", fillcolor="#399de5ff"] ;
174 -> 175 ;
176 [label="entropy = 0.0\nsamples = 1\nvalue = [0, 1, 0, 0]", fillcolor="#47e539ff"] ;
174 -> 176 ;
177 [label="Number of VCE Enrollments <= 0.311\nentropy = 1.067\nsamples = 23\nvalue = [0, 1, 6, 16]", fillcolor="#d739e596"] ;
171 -> 177 ;
178 [label="Percentage of study scores of 40 and over <= -0.192\nentropy = 1.0\nsamples = 12\nvalue = [0, 0, 6, 6]", fillcolor="#399de500"] ;
177 -> 178 ;
179 [label="entropy = 0.0\nsamples = 4\nvalue = [0, 0, 0, 4]", fillcolor="#d739e5ff"] ;
178 -> 179 ;
180 [label="Percentage of VCE students applying for tertiary places <= 1.096\nentropy = 0.811\nsamples = 8\nvalue = [0, 0, 6, 2]", fillcolor="#399de5aa"] ;
178 -> 180 ;
181 [label="entropy = 0.0\nsamples = 6\nvalue = [0, 0, 6, 0]", fillcolor="#399de5ff"] ;
180 -> 181 ;
182 [label="entropy = 0.0\nsamples = 2\nvalue = [0, 0, 0, 2]", fillcolor="#d739e5ff"] ;
180 -> 182 ;
183 [label="Number of students awarded the VCE (Baccalaureate) <= 2.016\nentropy = 0.439\nsamples = 11\nvalue = [0, 1, 0, 10]", fillcolor="#d739e5e6"] ;
177 -> 183 ;
184 [label="entropy = 0.0\nsamples = 10\nvalue = [0, 0, 0, 10]", fillcolor="#d739e5ff"] ;
183 -> 184 ;
185 [label="entropy = 0.0\nsamples = 1\nvalue = [0, 1, 0, 0]", fillcolor="#47e539ff"] ;
183 -> 185 ;
186 [label="VET Percentage of Sastisfactory Completion <= 0.737\nentropy = 0.711\nsamples = 36\nvalue = [0, 7, 0, 29]", fillcolor="#d739e5c1"] ;
170 -> 186 ;
187 [label="Number of VCE Enrollments <= 2.355\nentropy = 0.533\nsamples = 33\nvalue = [0, 4, 0, 29]", fillcolor="#d739e5dc"] ;
186 -> 187 ;
188 [label="VCAL Percentage of Sastisfactory Completion <= 0.992\nentropy = 0.449\nsamples = 32\nvalue = [0, 3, 0, 29]", fillcolor="#d739e5e5"] ;
187 -> 188 ;
189 [label=" Number of VET Subjects Offered <= 1.416\nentropy = 0.779\nsamples = 13\nvalue = [0, 3, 0, 10]", fillcolor="#d739e5b3"] ;
188 -> 189 ;
190 [label="VET Percentage of Sastisfactory Completion <= 0.656\nentropy = 0.439\nsamples = 11\nvalue = [0, 1, 0, 10]", fillcolor="#d739e5e6"] ;
189 -> 190 ;
191 [label="entropy = 0.0\nsamples = 9\nvalue = [0, 0, 0, 9]", fillcolor="#d739e5ff"] ;
190 -> 191 ;
192 [label=" Number of VET Subjects Offered <= 0.931\nentropy = 1.0\nsamples = 2\nvalue = [0, 1, 0, 1]", fillcolor="#47e53900"] ;
190 -> 192 ;
193 [label="entropy = 0.0\nsamples = 1\nvalue = [0, 1, 0, 0]", fillcolor="#47e539ff"] ;
192 -> 193 ;
194 [label="entropy = 0.0\nsamples = 1\nvalue = [0, 0, 0, 1]", fillcolor="#d739e5ff"] ;
192 -> 194 ;
195 [label="entropy = 0.0\nsamples = 2\nvalue = [0, 2, 0, 0]", fillcolor="#47e539ff"] ;
189 -> 195 ;
196 [label="entropy = 0.0\nsamples = 19\nvalue = [0, 0, 0, 19]", fillcolor="#d739e5ff"] ;
188 -> 196 ;
197 [label="entropy = 0.0\nsamples = 1\nvalue = [0, 1, 0, 0]", fillcolor="#47e539ff"] ;
187 -> 197 ;
198 [label="entropy = 0.0\nsamples = 3\nvalue = [0, 3, 0, 0]", fillcolor="#47e539ff"] ;
186 -> 198 ;
}